{"weights_3": [[6.389729022979736], [7.209846496582031], [8.773032188415527], [5.963714122772217]], "weights_2": [[-2.713353395462036, -4.67621374130249, -5.471198081970215, -2.682117223739624], [-0.6456342339515686, 1.9977518320083618, -0.5641722083091736, 0.9324895143508911], [4.9715256690979, 5.413070201873779, 6.508706092834473, 9.841409683227539], [-0.9800822734832764, -1.6885972023010254, -2.8519160747528076, -1.3392239809036255], [-4.517982482910156, -0.9011511206626892, -1.8828723430633545, -2.339003324508667], [-0.48886939883232117, 0.9315637350082397, -3.4146809577941895, 3.1213717460632324]], "weights_1": [[-0.46857741475105286, 1.072532296180725, -0.09287514537572861, -0.06807029247283936, -2.834754705429077, 0.14692074060440063], [0.18642449378967285, -0.6978644132614136, 0.3093514144420624, -1.8458608388900757, -0.4739052951335907, -0.2654341161251068], [-0.15664829313755035, -2.068256139755249, -0.021767709404230118, -0.6136757135391235, 2.0947563648223877, 1.3043822050094604], [0.05730295926332474, 0.9650580286979675, 0.1364305168390274, 1.1094651222229004, -1.7716162204742432, -0.2240554392337799], [0.03264366462826729, -0.42997291684150696, 0.07635436952114105, -1.6613693237304688, 1.7437782287597656, -0.5570608973503113], [0.08053041249513626, 1.704633355140686, 0.026266759261488914, 0.319303423166275, 0.388894647359848, -0.28438180685043335], [-0.062422167509794235, 0.18341811001300812, -0.005264163948595524, 1.7320339679718018, -1.5760830640792847, 1.196182370185852]], "biases_1": [6.785294055938721, -10.75257396697998, -9.228090286254883, 6.269966125488281, 3.5439529418945312, -8.610662460327148], "biases_2": [0.46394607424736023, 2.584890127182007, -1.3116110563278198, 0.0807277113199234], "biases_3": [4.405698776245117]}